booster[0]:
0:[f2<2.45000005] yes=1,no=2,missing=1
	1:leaf=0.425454557
	2:leaf=-0.218918934
booster[1]:
0:[f1<2.95000005] yes=1,no=2,missing=1
	1:[f3<1.6500001] yes=3,no=4,missing=3
		3:[f2<5] yes=7,no=8,missing=7
			7:leaf=0.397674441
			8:leaf=-7.66345476e-09
		4:leaf=-0.189473704
	2:[f2<3] yes=5,no=6,missing=5
		5:leaf=-0.212422386
		6:[f3<1.75] yes=9,no=10,missing=9
			9:leaf=0.339344263
			10:leaf=-0.205714315
booster[2]:
0:[f3<1.6500001] yes=1,no=2,missing=1
	1:[f2<5] yes=3,no=4,missing=3
		3:leaf=-0.218769252
		4:leaf=0.179999992
	2:leaf=0.407006383
booster[3]:
0:[f2<2.45000005] yes=1,no=2,missing=1
	1:leaf=0.294536024
	2:leaf=-0.196149647
booster[4]:
0:[f2<2.45000005] yes=1,no=2,missing=1
	1:leaf=-0.190647736
	2:[f3<1.75] yes=3,no=4,missing=3
		3:[f2<5.05000019] yes=5,no=6,missing=5
			5:leaf=0.292716175
			6:leaf=-0.0438830815
		4:leaf=-0.189248994
booster[5]:
0:[f3<1.75] yes=1,no=2,missing=1
	1:[f2<5.05000019] yes=3,no=4,missing=3
		3:[f3<1.54999995] yes=5,no=6,missing=5
			5:leaf=-0.195532292
			6:leaf=-0.0453951024
		4:leaf=0.150414243
	2:leaf=0.295030743
booster[6]:
0:[f2<2.45000005] yes=1,no=2,missing=1
	1:leaf=0.235495582
	2:leaf=-0.180397645
booster[7]:
0:[f2<2.45000005] yes=1,no=2,missing=1
	1:leaf=-0.17403473
	2:[f3<1.75] yes=3,no=4,missing=3
		3:[f2<5.05000019] yes=5,no=6,missing=5
			5:leaf=0.230863869
			6:leaf=-0.0377704874
		4:leaf=-0.172620207
booster[8]:
0:[f3<1.6500001] yes=1,no=2,missing=1
	1:[f2<5] yes=3,no=4,missing=3
		3:leaf=-0.180072412
		4:leaf=0.121275619
	2:leaf=0.22644414
booster[9]:
0:[f2<2.45000005] yes=1,no=2,missing=1
	1:leaf=0.202679202
	2:leaf=-0.169166267
booster[10]:
0:[f2<2.45000005] yes=1,no=2,missing=1
	1:leaf=-0.161591321
	2:[f3<1.75] yes=3,no=4,missing=3
		3:[f2<5.05000019] yes=5,no=6,missing=5
			5:leaf=0.196812436
			6:leaf=-0.0314637311
		4:leaf=-0.160339892
booster[11]:
0:[f3<1.6500001] yes=1,no=2,missing=1
	1:[f2<5] yes=3,no=4,missing=3
		3:leaf=-0.168617561
		4:leaf=0.0993399248
	2:leaf=0.193614662
booster[12]:
0:[f2<2.45000005] yes=1,no=2,missing=1
	1:leaf=0.181884781
	2:leaf=-0.160605028
booster[13]:
0:[f2<2.45000005] yes=1,no=2,missing=1
	1:leaf=-0.151538521
	2:[f3<1.75] yes=3,no=4,missing=3
		3:[f2<5.05000019] yes=5,no=6,missing=5
			5:leaf=0.174654752
			6:leaf=-0.0254967194
		4:leaf=-0.150346741
booster[14]:
0:[f3<1.6500001] yes=1,no=2,missing=1
	1:[f2<5] yes=3,no=4,missing=3
		3:leaf=-0.159846038
		4:leaf=0.0821266919
	2:leaf=0.171973273
booster[15]:
0:[f2<2.45000005] yes=1,no=2,missing=1
	1:leaf=0.167360723
	2:leaf=-0.153638944
booster[16]:
0:[f2<2.45000005] yes=1,no=2,missing=1
	1:leaf=-0.142796859
	2:[f3<1.75] yes=3,no=4,missing=3
		3:[f2<5.05000019] yes=5,no=6,missing=5
			5:leaf=0.158589438
			6:leaf=-0.0201149676
		4:leaf=-0.141642213
booster[17]:
0:[f3<1.6500001] yes=1,no=2,missing=1
	1:[f2<5] yes=3,no=4,missing=3
		3:leaf=-0.152657539
		4:leaf=0.0682368279
	2:leaf=0.156127527
booster[18]:
0:[f2<2.45000005] yes=1,no=2,missing=1
	1:leaf=0.15630661
	2:leaf=-0.147575274
booster[19]:
0:[f2<2.45000005] yes=1,no=2,missing=1
	1:leaf=-0.134681761
	2:[f3<1.75] yes=3,no=4,missing=3
		3:[f2<5.05000019] yes=5,no=6,missing=5
			5:leaf=0.145808175
			6:leaf=-0.0154126119
		4:leaf=-0.133601621
booster[20]:
0:[f3<1.75] yes=1,no=2,missing=1
	1:[f2<5.05000019] yes=3,no=4,missing=3
		3:[f3<1.54999995] yes=5,no=6,missing=5
			5:leaf=-0.145837814
			6:leaf=-0.0136749558
		4:leaf=0.0568313934
	2:leaf=0.156322092
booster[21]:
0:[f2<2.45000005] yes=1,no=2,missing=1
	1:leaf=0.147195473
	2:leaf=-0.141869307
booster[22]:
0:[f2<2.45000005] yes=1,no=2,missing=1
	1:leaf=-0.126771063
	2:[f3<1.6500001] yes=3,no=4,missing=3
		3:[f2<5] yes=5,no=6,missing=5
			5:leaf=0.149119616
			6:leaf=-0.0114006307
		4:[f0<6.5999999] yes=7,no=8,missing=7
			7:leaf=-0.130308509
			8:leaf=-0.046238061
booster[23]:
0:[f3<1.6500001] yes=1,no=2,missing=1
	1:[f0<6.05000019] yes=3,no=4,missing=3
		3:leaf=-0.153853431
		4:[f2<5] yes=5,no=6,missing=5
			5:leaf=-0.0970533714
			6:leaf=0.138364851
	2:leaf=0.134918734
booster[24]:
0:[f2<2.45000005] yes=1,no=2,missing=1
	1:leaf=0.138932422
	2:leaf=-0.136233732
booster[25]:
0:[f2<5.14999962] yes=1,no=2,missing=1
	1:[f2<2.45000005] yes=3,no=4,missing=3
		3:leaf=-0.118858889
		4:[f3<1.6500001] yes=5,no=6,missing=5
			5:leaf=0.145442769
			6:leaf=-0.0451248288
	2:leaf=-0.12697202
booster[26]:
0:[f3<1.75] yes=1,no=2,missing=1
	1:[f2<5.05000019] yes=3,no=4,missing=3
		3:[f1<2.54999995] yes=5,no=6,missing=5
			5:leaf=-0.00609863829
			6:leaf=-0.140445918
		4:leaf=0.0380453542
	2:leaf=0.139274821
booster[27]:
0:[f2<2.45000005] yes=1,no=2,missing=1
	1:leaf=0.13133654
	2:leaf=-0.130367488
booster[28]:
0:[f2<5.14999962] yes=1,no=2,missing=1
	1:[f2<2.45000005] yes=3,no=4,missing=3
		3:leaf=-0.110843681
		4:[f3<1.6500001] yes=5,no=6,missing=5
			5:leaf=0.136546507
			6:leaf=-0.0410366356
	2:leaf=-0.119249232
booster[29]:
0:[f3<1.75] yes=1,no=2,missing=1
	1:[f2<5.05000019] yes=3,no=4,missing=3
		3:[f1<2.54999995] yes=5,no=6,missing=5
			5:leaf=5.34193605e-05
			6:leaf=-0.134997293
		4:leaf=0.0330562703
	2:leaf=0.131669357
booster[30]:
0:[f2<2.45000005] yes=1,no=2,missing=1
	1:leaf=0.123941161
	2:leaf=-0.12430089
booster[31]:
0:[f2<5.14999962] yes=1,no=2,missing=1
	1:[f0<5.44999981] yes=3,no=4,missing=3
		3:[f2<1.79999995] yes=5,no=6,missing=5
			5:leaf=-0.0981055647
			6:leaf=-0.0207978599
		4:[f3<1.6500001] yes=7,no=8,missing=7
			7:leaf=0.114354566
			8:leaf=0.00665307371
	2:leaf=-0.111759655
booster[32]:
0:[f3<1.75] yes=1,no=2,missing=1
	1:[f2<5.05000019] yes=3,no=4,missing=3
		3:[f1<2.54999995] yes=5,no=6,missing=5
			5:leaf=0.00516482722
			6:leaf=-0.129343271
		4:leaf=0.0295336265
	2:leaf=0.124366112
booster[33]:
0:[f2<2.45000005] yes=1,no=2,missing=1
	1:leaf=0.117141068
	2:leaf=-0.118396848
booster[34]:
0:[f2<5.14999962] yes=1,no=2,missing=1
	1:[f0<5.44999981] yes=3,no=4,missing=3
		3:leaf=-0.0768020749
		4:[f3<1.6500001] yes=5,no=6,missing=5
			5:leaf=0.104607411
			6:leaf=0.00757976715
	2:leaf=-0.104547299
booster[35]:
0:[f3<1.75] yes=1,no=2,missing=1
	1:[f2<5.05000019] yes=3,no=4,missing=3
		3:[f0<4.94999981] yes=5,no=6,missing=5
			5:leaf=0.0140266418
			6:leaf=-0.123953648
		4:leaf=0.0265771467
	2:leaf=0.117510185
booster[36]:
0:[f2<2.45000005] yes=1,no=2,missing=1
	1:leaf=0.111421607
	2:leaf=-0.112541661
booster[37]:
0:[f2<5.14999962] yes=1,no=2,missing=1
	1:[f0<5.44999981] yes=3,no=4,missing=3
		3:leaf=-0.0698417574
		4:[f3<1.6500001] yes=5,no=6,missing=5
			5:leaf=0.0944593847
			6:leaf=0.00804871321
	2:leaf=-0.0976760089
booster[38]:
0:[f3<1.75] yes=1,no=2,missing=1
	1:[f0<6.05000019] yes=3,no=4,missing=3
		3:[f0<4.94999981] yes=5,no=6,missing=5
			5:leaf=0.0144274002
			6:leaf=-0.135037675
		4:[f0<6.35000038] yes=7,no=8,missing=7
			7:leaf=0.0610109605
			8:leaf=-0.030677462
	2:leaf=0.110815749
booster[39]:
0:[f2<2.45000005] yes=1,no=2,missing=1
	1:leaf=0.10578692
	2:leaf=-0.106776528
booster[40]:
0:[f2<5.14999962] yes=1,no=2,missing=1
	1:[f2<2.45000005] yes=3,no=4,missing=3
		3:leaf=-0.0839859471
		4:[f3<1.6500001] yes=5,no=6,missing=5
			5:leaf=0.102049433
			6:leaf=-0.0333318077
	2:leaf=-0.0915499404
booster[41]:
0:[f2<4.44999981] yes=1,no=2,missing=1
	1:leaf=-0.0990527421
	2:[f2<5.14999962] yes=3,no=4,missing=3
		3:[f3<1.6500001] yes=5,no=6,missing=5
			5:leaf=-0.0490685739
			6:leaf=0.0507229567
		4:leaf=0.109124459
booster[42]:
0:[f2<2.45000005] yes=1,no=2,missing=1
	1:leaf=0.09886159
	2:leaf=-0.100330614
booster[43]:
0:[f2<5.14999962] yes=1,no=2,missing=1
	1:[f0<5.44999981] yes=3,no=4,missing=3
		3:leaf=-0.0627068505
		4:[f2<5.05000019] yes=5,no=6,missing=5
			5:leaf=0.0853699595
			6:leaf=0.00415762188
	2:leaf=-0.0836580917
booster[44]:
0:[f2<4.44999981] yes=1,no=2,missing=1
	1:leaf=-0.0918605849
	2:[f2<5.14999962] yes=3,no=4,missing=3
		3:[f3<1.6500001] yes=5,no=6,missing=5
			5:leaf=-0.0377298929
			6:leaf=0.043008171
		4:leaf=0.101006709
booster[45]:
0:[f2<2.45000005] yes=1,no=2,missing=1
	1:leaf=0.0930437446
	2:leaf=-0.0946867317
booster[46]:
0:[f0<5.14999962] yes=1,no=2,missing=1
	1:leaf=-0.0630975589
	2:[f2<5.05000019] yes=3,no=4,missing=3
		3:leaf=0.0719492957
		4:leaf=-0.0453851372
booster[47]:
0:[f3<1.75] yes=1,no=2,missing=1
	1:[f0<6.05000019] yes=3,no=4,missing=3
		3:[f0<5.14999962] yes=5,no=6,missing=5
			5:leaf=-0.0016593897
			6:leaf=-0.112844862
		4:leaf=0.0195563715
	2:leaf=0.0934865177
booster[48]:
0:[f2<2.45000005] yes=1,no=2,missing=1
	1:leaf=0.0888255686
	2:leaf=-0.0892397463
booster[49]:
0:[f1<2.75] yes=1,no=2,missing=1
	1:leaf=0.0377849825
	2:[f2<5.05000019] yes=3,no=4,missing=3
		3:[f0<5.85000038] yes=5,no=6,missing=5
			5:leaf=-0.0405206196
			6:leaf=0.0769842118
		4:leaf=-0.102906682
booster[50]:
0:[f3<1.75] yes=1,no=2,missing=1
	1:[f0<6.05000019] yes=3,no=4,missing=3
		3:[f0<5.14999962] yes=5,no=6,missing=5
			5:leaf=-0.00111228263
			6:leaf=-0.108435251
		4:leaf=0.0183802731
	2:leaf=0.088288933
booster[51]:
0:[f2<2.45000005] yes=1,no=2,missing=1
	1:leaf=0.0842781141
	2:leaf=-0.0842020288
booster[52]:
0:[f0<5.35000038] yes=1,no=2,missing=1
	1:leaf=-0.0562408231
	2:[f2<5.05000019] yes=3,no=4,missing=3
		3:leaf=0.0686283633
		4:leaf=-0.0379481688
booster[53]:
0:[f2<4.44999981] yes=1,no=2,missing=1
	1:leaf=-0.0781493708
	2:[f3<1.75] yes=3,no=4,missing=3
		3:[f0<6.05000019] yes=5,no=6,missing=5
			5:leaf=-0.0245963838
			6:leaf=0.0243158247
		4:leaf=0.0827594623
booster[54]:
0:[f2<2.45000005] yes=1,no=2,missing=1
	1:leaf=0.0793853402
	2:leaf=-0.0792473853
booster[55]:
0:[f0<5.35000038] yes=1,no=2,missing=1
	1:leaf=-0.0531166606
	2:[f2<5.05000019] yes=3,no=4,missing=3
		3:leaf=0.0642090291
		4:leaf=-0.0329164043
booster[56]:
0:[f3<1.75] yes=1,no=2,missing=1
	1:[f0<6.05000019] yes=3,no=4,missing=3
		3:leaf=-0.062639378
		4:leaf=0.0155616757
	2:leaf=0.0783433393
booster[57]:
0:leaf=0.000164816767
booster[58]:
0:[f0<5.35000038] yes=1,no=2,missing=1
	1:leaf=-0.0511382557
	2:[f0<6.05000019] yes=3,no=4,missing=3
		3:leaf=0.0683616772
		4:[f2<5.05000019] yes=5,no=6,missing=5
			5:leaf=0.0633725673
			6:leaf=-0.0954830423
booster[59]:
0:[f3<1.6500001] yes=1,no=2,missing=1
	1:[f0<6.05000019] yes=3,no=4,missing=3
		3:leaf=-0.109398805
		4:leaf=0.0576521009
	2:leaf=0.0547559708
